encog,BasicNetwork,java,3.2.0,1,1429564426765
[BASIC]
[BASIC:PARAMS]
[BASIC:NETWORK]
beginTraining=0
connectionLimit=0
contextTargetOffset=0,0,0
contextTargetSize=0,0,0
endTraining=2
hasContext=f
inputCount=4
layerCounts=1,13,5
layerFeedCounts=1,12,4
layerContextCount=0,0,0
layerIndex=0,1,14
output=0,0,0,0,0,0,0,0,0,0,0,0,0,1,0,0,0,0,1
outputCount=1
weightIndex=0,13,73
weights=0.2113211416,-8.6934356179,1.013747831,-0.8726040224,0.3044075681,0.1667051463,0.1143510964,-1.5097599242,-0.4522637867,0.3237224349,-0.9351981801,-0.7453838527,-1.230943327,10.8087705838,-3.6276525295,1.0691146428,4.6918904313,-0.4046450993,1.6089168521,-1.0012851009,-0.1280605356,10.1214209419,-5.033582501,9.9797358314,6.5793377308,-0.5126985863,1.0960204248,-3.5469621183,-4.8245873223,1.36608757,-1.1571917025,52.7323280963,-0.4912453856,5.4787688726,0.3917819317,0.2994117429,1.4609746156,1.5674125109,7.4125036392,0.4233959283,0.2775195344,1.8224022141,-0.3604171914,1.6993612615,2.6570013451,1.1366544264,1.0400515227,1.2081659169,6.6766136825,4.1470861425,4.1056572079,-74.4073146899,1.4022145726,0.2712177815,2.0697632538,0.8338892644,1.0450435254,0.9174198644,4.2311332307,2.98382601,0.6881747062,0.3136958707,-1.0356894636,1.4489205437,1.3932363001,3.5616719943,1.3515541336,-1.1137245855,0.6872420735,-0.2553985651,1.2047412012,10.0893441046,-2.0662822448
biasActivation=0,1,1
[BASIC:ACTIVATION]
"org.encog.engine.network.activation.ActivationSigmoid"
"org.encog.engine.network.activation.ActivationSigmoid"
"org.encog.engine.network.activation.ActivationLinear"
