encog,BasicNetwork,java,3.2.0,1,1429564427280
[BASIC]
[BASIC:PARAMS]
[BASIC:NETWORK]
beginTraining=0
connectionLimit=0
contextTargetOffset=0,0,0
contextTargetSize=0,0,0
endTraining=2
hasContext=f
inputCount=4
layerCounts=1,10,5
layerFeedCounts=1,9,4
layerContextCount=0,0,0
layerIndex=0,1,11
output=0,0,0,0,0,0,0,0,0,0,1,0,0,0,0,1
outputCount=1
weightIndex=0,10,55
weights=-0.4337539683,-0.4340061416,-0.1633601574,-0.3292387856,0.8515654265,0.1420255579,-0.2914547281,-0.0647715181,-0.3886321854,-1.8393633113,0.9251108414,0.8753056076,0.5283215653,5.6868487226,-1.981470859,4.0394105174,3.2968607368,1.0516996942,-52.8927079436,-1.1950314612,0.5439936762,0.7353934214,1.5892900991,1.082002377,1.614024284,-6.066054551,-4.5565716054,0.9022598238,76.6371127764,1.6720208895,2.1961035509,1.8069306585,0.4855983337,1.8162054708,-0.4619471242,0.3273253165,1.7967461106,1.920553247,-2.5097491932,1.6946703808,0.5995266251,1.0241675899,1.1959885728,3.1233429914,-1.9491180611,-0.8263511243,-4.4902369407,0.3915718158,-0.5107748859,1.6692781092,0.9088815801,0.7164382664,0.4867438158,2.1353859746,-1.5960944552
biasActivation=0,1,1
[BASIC:ACTIVATION]
"org.encog.engine.network.activation.ActivationSigmoid"
"org.encog.engine.network.activation.ActivationSigmoid"
"org.encog.engine.network.activation.ActivationLinear"
