encog,BasicNetwork,java,3.2.0,1,1429033112707
[BASIC]
[BASIC:PARAMS]
[BASIC:NETWORK]
beginTraining=0
connectionLimit=0
contextTargetOffset=0,0,0
contextTargetSize=0,0,0
endTraining=2
hasContext=f
inputCount=4
layerCounts=1,11,5
layerFeedCounts=1,10,4
layerContextCount=0,0,0
layerIndex=0,1,12
output=0,0,0,0,0,0,0,0,0,0,0,1,0,0,0,0,1
outputCount=1
weightIndex=0,11,61
weights=-0.1718217434,-12.8886665296,-0.6483212302,0.4562302461,-0.6661818355,0.5245918124,-1.2850138874,-0.4051422786,-0.1898717152,-2.5882808402,-1.2078148766,0.0953855966,-2.1269034826,1.2634790594,0.5930078878,-0.2575180953,-3.8516319597,-1.133471929,-0.086982908,-27.1491348684,1.1294828513,-0.0527517144,-0.6299879417,0.0321896458,5.2261753673,-1.0303357415,5.7218461203,6.3209657172,7.0276596024,5.2107297069,8.0337914929,0.5189366744,0.4372970717,2.0047968628,0.553593576,-2.7554686715,1.9542065762,2.9483192396,1.5073102391,-1.2113138211,-2.8934978295,8.9718924251,4.2146468763,1.0093528372,-48.2997738462,1.1945060215,-4.0865495545,-1.2398853907,0.2182897831,2.0565959548,2.026082238,-0.7339328151,-0.1333438751,-0.0218744617,2.0258972796,-0.3581372206,1.3511985122,0.9320500547,-1.7859499039,33.7029599487,-3.9601846673
biasActivation=0,1,1
[BASIC:ACTIVATION]
"org.encog.engine.network.activation.ActivationSigmoid"
"org.encog.engine.network.activation.ActivationSigmoid"
"org.encog.engine.network.activation.ActivationLinear"
