encog,BasicNetwork,java,3.2.0,1,1424813501457
[BASIC]
[BASIC:PARAMS]
[BASIC:NETWORK]
beginTraining=0
connectionLimit=0
contextTargetOffset=0,0,0
contextTargetSize=0,0,0
endTraining=2
hasContext=f
inputCount=3
layerCounts=1,14,4
layerFeedCounts=1,13,3
layerContextCount=0,0,0
layerIndex=0,1,15
output=0,0,0,0,0,0,0,0,0,0,0,0,0,0,1,0,0,0,1
outputCount=1
weightIndex=0,14,66
weights=0.5693914804,0.0431814062,-0.2645826053,-1.0510981737,-8.7820403763,0.7255297728,-1.0891478971,1.4566677077,-0.8567282165,1.8699528098,-2.4383559447,-0.180072807,-2.1480732709,1.180373883,0.7673143454,-1.0406391862,-3.3703354882,-3.9160596812,-0.364074254,-0.8229418825,-0.0385289207,-3.3770817409,0.6604367711,0.333302659,-1.8772800568,-4.2407531354,-0.5033300673,5.4618000172,-1.8366659865,-3.5957027342,9.0140694407,6.7022055559,-32.0121371449,-3.2280046687,0.7589709323,-0.8787913217,-0.5278122708,-3.2651181115,-2.8572216534,-1.0799441078,-4.0672058061,-5.6355646728,1.183125251,-1.4937378185,-1.1169145322,-2.3274831785,-1.0030312647,0.6357640922,-3.4647850539,-5.3512384395,1.1785313672,-0.3193411122,1.169863159,-5.1886553208,-6.8738966591,-6.8406035356,2.4333278939,-1.3870079535,2.042159611,0.874067955,-2.0764226316,-3.8363791974,1.9885661514,7.5924361303,-1.2111413812,-2.9030425299
biasActivation=0,1,1
[BASIC:ACTIVATION]
"org.encog.engine.network.activation.ActivationSigmoid"
"org.encog.engine.network.activation.ActivationSigmoid"
"org.encog.engine.network.activation.ActivationLinear"
