encog,BasicNetwork,java,3.2.0,1,1429033113226
[BASIC]
[BASIC:PARAMS]
[BASIC:NETWORK]
beginTraining=0
connectionLimit=0
contextTargetOffset=0,0,0
contextTargetSize=0,0,0
endTraining=2
hasContext=f
inputCount=4
layerCounts=1,12,5
layerFeedCounts=1,11,4
layerContextCount=0,0,0
layerIndex=0,1,13
output=0,0,0,0,0,0,0,0,0,0,0,0,1,0,0,0,0,1
outputCount=1
weightIndex=0,12,67
weights=0.4559225183,-0.4866863288,-0.4407570196,0.5077125285,-0.0799152351,-0.4354236274,-0.3980447721,-0.3796576183,-0.4621794784,-0.6842032077,-0.1207829578,-0.1964389943,3.3450018247,3.3302675983,-0.5022786212,-25.1916465617,-0.9195021582,1.6976067674,0.4924320149,1.875597973,0.3639547323,2.0472935437,1.2649775085,1.6424449556,0.3133889091,1.2363705192,-2.2414545365,2.7748890151,1.5935919547,0.1923869581,1.399540656,0.0347824917,-0.5621289491,-1.1802063404,-0.0927757861,1.4453230978,0.3643632971,0.328866151,0.162330355,-0.0401401774,18.4394818902,-1.9155060927,6.9258017978,5.9644572163,-0.6373333568,-91.6240062584,1.2502730483,0.7356193972,-0.5948484911,0.6146339702,-1.4763905388,1.492201006,1.9051596555,1.7097683078,0.7393711022,-1.9360756813,2.471288081,-0.1323243037,0.7994212457,2.3547184498,3.2056466556,0.4249902675,0.0549667035,-0.187646325,0.9493099956,2.4560288169,1.5592113314
biasActivation=0,1,1
[BASIC:ACTIVATION]
"org.encog.engine.network.activation.ActivationSigmoid"
"org.encog.engine.network.activation.ActivationSigmoid"
"org.encog.engine.network.activation.ActivationLinear"
